-0.28718945
-0.4242056
-0.29701933
-0.18708767
-0.1673443
-0.3236506
-0.42543
-0.27641252
-0.20436971
0.11875653
-0.24447247
-0.24912925
-0.40191734
-0.4605138
0.0057894094
-0.26804671
0.19276159
-0.72504795
-0.43832779
-0.25856534
0.36171693
-1.3099937
-1.3477576
-0.1782631
-0.81762683
-1.163268
-1.8079784
0.30384979
-1.8382444
1.2197244
-2.5533409
-0.0099535231
-0.47444001
0.88444942
-2.6698472
0.25481105
0.93920094
1.3433223
-3.7821164
-0.024363859
0.83658457
0.72829658
-3.6543262
-0.078019805
0.64689159
0.099806108
-2.8230994
0.036714505
0.013330319
-0.27846941
-1.8327957
0.29644427
-0.20988981
-0.11225382
-1.0031568
-0.29825577
-0.29668286
0.035986301
-0.22477873
-0.64933956
-1.7394561
1.2892724
-0.6803475
0.085135669
-0.060980882
0.55765128
-1.9564626
-0.027445931
0.25186062
0.8098008
-2.1627305
-0.2756311
0.59206659
0.76801783
-2.5899737
-0.15109104
1.0113723
0.68454224
-3.0121381
-0.10629822
0.15825817
1.350641
-2.9507067
-0.13908292
-0.24144876
-0.022433801
-1.809361
-0.073202647
-0.67615783
-0.50602949
-0.37511769
-0.036163345
-1.37149
-0.81142962
1.6424543
0.012888
0.12170321
-0.035829034
-0.6069535
-0.0042204792
-0.50095451
0.17912661
-0.11504451
-0.06729465
0.081710152
-0.22968186
-0.44052824
0.0108107
0.15962455
-0.24678552
-0.65596324
-0.083765231
-0.42635128
-0.45428169
-0.28899857
-0.29029581
-0.56024468
-0.13026965
0.03612832
-0.44255733
0.24759446
-0.30723968
-0.86210757
-0.5554539
-1.5096493
1.1738977
-1.3552701
0.027936004
-0.47428343
-0.65383816
-0.51791805
-0.68504626
-0.12865576
-0.0019431761
-0.12558438
-0.057967752
-0.28883868
-0.25766084
-0.21052724
-0.24495718
0.40008003
0.023672797
0.17336978
0.38205358
-0.18796256
-0.3772535
-0.57040542
-0.14067571
-2.0285137
-1.2984318
-0.90088016
-2.1628733
9.1021538
-8.6373568
-8.3284702
-0.074482612
4.5355206
-8.1201534
-4.6487989
0.0046908339
8.0840054
-8.3100157
-7.9913468
0.30079612
-1.6077892
-1.5774611
-0.75925499
-2.2833505
-0.0063366825
-0.20128806
-0.42832226
-0.2367568
-0.10565194
-0.36141443
-0.17125969
-0.20849818
-0.26184061
-0.21298046
-0.30733043
-0.30691683
-0.30256793
-0.14365557
-0.26661679
-0.087010428
-0.36030811
-0.48061174
-0.29773769
-0.58732653
-5.0406146
-3.5069549
-3.1162815
-0.09819635
-0.031458333
-0.047975682
-0.25494862
-0.1025471
0.00035048494
-0.43902391
-0.10095008
-0.013968931
-0.11317035
-0.080160171
-0.20792113
0.18585041
0.12256816
-0.11396725
-0.30122739
-0.0067361449
-1.2324061
1.117666
-0.022163885
-0.11958554
-0.64522201
0.27995607
0.012018613
-0.074677683
-0.20339705
-0.39833701
0.26998746
-0.21887943
-3.176635
0.57145631
1.3753046
-0.0060928776
-0.42346874
-0.46966761
0.6957494
-0.17756258
0.45754236
-0.52229089
-0.078061208
0.15442586
0.66059399
-0.35296124
-0.32836905
-0.18346429
-0.28899688
-0.37953755
0.24211188
-0.34056142
-0.15570548
0.34299779
-0.35482994
-0.46907139
-0.059406087
0.20305122
-0.24117231
-0.308359
-0.1416391
0.50936592
-0.12018084
-0.41873342
-1.1155894
0.90122837
-0.22348607
-0.52065283
0.42751044
-0.49224439
-0.057173684
-0.79896462
-0.48695937
-0.52913123
-0.10315764
-0.056613311
-0.19568841
0.28972876
0.22415799
0.58127576
0.91566515
0.7281059
0.47300041
0.31548572
-0.39325917
-0.19761278
-0.12547837
-0.29751837
0.42924646
-0.95979542
-0.11182071
-0.72023416
-0.31475508
-1.0981302
-0.83658826
0.73782766
1.975695
-0.79904854
-2.7610023
0.01000473
-6.5020623
2.195658
3.4554904
1.0421431
-0.10011898
-0.081509888
-0.16366278
0.58117223
-0.43112171
-0.83348686
-1.2371916
0.31023014
0.3365249
-0.75387275
0.53592199
0.1251574
0.51429975
0.79446453
-0.32146674
0.12655656
-0.10818501
-0.20752311
0.68343186
0.070942238
0.053808957
-0.00039423732
-0.15949185
-0.22799636
0.59681189
-1.4293854
-0.23341686
-0.60660702
-0.34091565
0.4409388
-0.050032653
-0.24145618
0.21323305
0.13098665
-0.71275169
-0.11912089
0.0083493199
0.0016482812
-0.60271215
-0.2214642
-0.83140123
0.74713427
-0.77083707
-0.059939709
-0.16573451
0.55454159
-1.0070975
0.02085037
0.78803086
0.071817562
-0.67407757
0.062577657
-0.47358459
-1.4287223
1.2654591
0.44636318
1.9095033
-3.378161
-0.89058006
-0.011703094
-0.44418117
-0.48702663
0.021938141
0.50944275
0.043248698
-0.48213401
-0.25347495
0.075681299
0.19969228
-0.15437521
-0.53633857
-0.46184206
0.86230725
-0.27148914
-0.53321236
-0.14488354
-0.12063884
-0.44623217
0.48507562
0.20524177
-0.67062896
0.23273383
-0.070700273
0.034183975
-0.031136505
0.21120583
-0.65581578
-0.52972788
-1.6578734
1.4313613
-0.91727275
-0.080089688
0.25764498
0.14581649
0.069836095
-0.19134182
-0.15225352
-0.046679445
0.20947383
0.0029702536
0.13296227
0.21772799
-0.46012375
-0.46668914
-0.51798362
-0.17768815
-0.33377585
-0.41442901
-0.036365163
0.58555609
-0.65328217
-0.17519176
0.86017036
-0.080179207
0.46426976
0.046979446
0.83297813
0.68432927
0.22262029
0.62183344
2.5534062
2.9384553
-4.4270272
0.0024890418
0.069157012
1.0166521
-0.6341812
0.5637005
0.56186211
0.28706086
-0.60472989
0.21883616
0.1798059
0.051787347
-0.53860778
0.097376607
-0.67507613
-0.058069218
-0.072789252
-0.48829386
-0.30662426
-0.346158
-0.39635983
-0.43466225
-0.34216455
-0.37235984
-0.21231684
-0.31687856
-0.11903214
-0.22902665
0.034241054
-0.17882821
-2.0569627
-2.2375929
2.4549971
0.076441295
0.015942145
0.52877647
-0.93802214
-0.35265961
-0.31384039
0.32971618
-0.34844041
-0.4048503
-0.26453292
-0.02821085
-0.095671117
-0.18592288
-0.25404873
0.1088042
0.14546309
0.038178109
0.35395113
-0.63919771
0.10576324
0.077151336
0.22664608
-0.4549109
0.40125692
-0.088059343
0.21018545
-0.62751192
0.19040945
0.12115359
0.64661801
-0.37742242
-1.0316505
0.0094990134
-0.26599309
-0.74917454
0.59096265
0.13469641
-0.57427412
-0.87735856
0.79272962
-0.055669554
-0.053643648
-1.0661613
0.64662695
-0.18054575
-0.31552702
-0.53936929
0.51445192
-0.22033411
-0.45221496
-0.47441539
0.5797804
-0.11713221
-0.17530514
-0.30985948
0.18620951
-0.058953248
0.027792243
-0.56506377
-0.097262837
0.1104884
0.11995313
-0.06799002
-0.88548535
-1.2529976
-0.24724291
-0.34196368
-0.21083906
-0.34808135
-0.016216615
-0.31391737
-0.46349499
-0.26170364
-0.17288019
-0.21943609
-0.33662304
-0.10748147
-0.16822134
-0.85104954
-0.035006296
0.08579322
0.16029325
-0.47616208
0.27945617
0.056793809
-0.75378025
-0.32299206
-0.04828101
-0.19317721
-0.39237869
-0.7537275
-0.30997249
0.078700423
1.113343
-1.6832652
0.24404597
-0.0011248448
-1.6344905
2.9287405
-1.5833594
0.12294309
-1.9240599
1.4612545
0.20243466
-0.11867438
-1.3165965
0.20737992
0.55773079
-0.12859502
0.26652148
-1.2289844
0.50300682
-0.09831997
-0.49752614
-0.85803908
0.73110151
-0.20280813
-0.30767834
-0.44145411
0.52452898
-0.23536147
-0.22196682
-0.46268475
-0.060458407
-0.037428301
-0.29379192
-0.23934139
-0.1028228
0.1369592
-0.010960463
-0.56138641
0.7424137
0.23065069
0.41856214
-0.61183089
0.0076688682
0.3708438
-0.047754657
0.22364619
0.094027884
0.045628332
-0.079534978
-0.27053037
0.11393404
-0.026092649
0.62378693
-0.090492636
-1.0491304
-0.19054341
-1.5323722
1.9444497
-1.2039847
-0.02254463
-1.7603797
0.56017905
0.13494878
0.68709034
1.5833774
-0.085969321
-2.2683921
0.00085590972
1.2684513
-2.6316719
0.19464846
0.61137849
-0.34352458
-0.92664319
0.97215885
-0.12603006
-0.1660455
-0.058650095
0.049632329
-0.3693147
0.069593064
-0.051072609
-0.5564515
-0.46405253
-0.36709443
-0.35699576
0.03692665
-0.15108974
-0.17629595
0.21916842
-0.29748857
-0.2163091
-0.10429507
-0.21714976
0.099272758
0.19422381
-0.29156631
-0.64339966
-0.27455908
0.50359994
-0.22487508
0.85035586
-0.32214347
-0.32786596
-0.73068434
0.91962433
-0.066492766
-0.091706507
-1.111681
0.59190691
0.13213475
-0.076554634
-1.2409767
1.064026
-0.57506084
-0.12921213
-1.5683995
0.92382389
0.31268835
-0.076833203
-0.32002574
-0.69749939
1.1612252
-0.033783894
0.041788217
-1.171338
1.5898814
-0.15967259
-1.3928255
0.79369634
-0.057978567
-0.0084171696
0.16564555
0.1475115
-0.16867268
-0.10025869
0.022249682
0.40045404
0.059970513
-0.052223925
0.1819488
-0.19076395
-0.12639241
-0.27619341
-0.081804454
-0.4850935
-0.68258977
-0.2134987
-0.76685601
-0.22254625
-0.22672695
-0.2383796
-0.76746815
-0.10956752
-0.013049979
-0.4510392
0.15406534
-0.15531607
-0.84621859
-0.29853055
-0.048103351
1.068972
-1.5548148
-0.37855262
-0.046386197
0.23543011
-0.48006395
-0.1540745
-0.21349694
-0.2348886
0.051444974
-0.046038788
-0.40446901
-0.44949818
0.37925404
-0.086049519
-0.13370168
-0.70631891
0.26024169
-0.024470929
-0.023046598
-0.4411076
-0.091715671
0.036450695
0.063623346
-0.33954552
-0.22183651
0.06486953
-0.48493114
-0.36882597
-0.139459
0.33010018
0.60202336
-0.97681862
-1.3845655
0.0030144281
0.18831325
-0.67819667
-0.47821075
0.25563428
-0.53820014
-0.1477634
-0.030566435
-0.18544032
-0.5448634
-0.35453081
0.12375385
-0.17275286
0.024456665
-0.23473451
-0.36661425
-0.098437145
-0.17567194
0.0047321101
-0.29989168
-0.057189498
0.14082833
0.2357572
-0.87111849
-0.056582756
-0.65167689
0.74347246
-0.50695795
-0.10196053
-0.69125718
0.93962222
-0.68646121
-0.050144527
-0.17741916
-0.17687792
-0.11695581
0.15113154
-0.44333553
0.14730623
0.14287922
-0.029223477
-0.29195121
0.025821535
-0.27677277
-0.14372312
-0.45196736
-0.15411811
0.10782716
-0.42409268
-0.62275195
0.52078915
-0.09194874
-0.39199117
0.32122096
-0.16315053
-1.9323
0.0079228804
1.4227564
-0.65000254
-2.2686839
-0.034012735
-1.2526091
-1.3885269
2.7216256
0.0062412564
-0.68331778
-0.53981745
-0.090398505
0.4666568
0.12479178
-0.70701981
-0.33319443
0.25659564
0.35824075
-0.38684914
-0.17256889
0.1517543
-0.1274056
-0.19574408
0.4233118
0.06904351
-0.32192838
-0.47531086
0.23695688
0.032932516
-0.41734356
-0.23713107
0.18278515
-0.016453188
0.29597756
-0.3586807
0.17405668
-0.10849869
-0.57566828
-0.61052036
0.22542724
0.067619659
-0.28459406
-0.066208005
-0.22521842
-0.020685336
0.24123602
-0.031118551
-0.092075653
-0.15872653
-0.08349891
-0.0011450581
0.45460784
-0.14707828
0.42373675
-0.55314696
0.062440109
0.035849851
-0.94417244
1.2626388
-0.61692441
0.18157849
0.41542134
-0.73642033
0.44114375
0.10970029
0.089346521
-1.0517991
0.7306968
-0.080868214
0.12846853
-0.32542539
-0.76760948
0.0028935289
-1.7558715
2.3424642
-1.1758648
-0.06084919
-1.6272496
2.0147512
-1.7426636
0.12817381
0.94405824
-2.5935268
0.7950865
-0.050920215
0.65549839
-2.7703824
0.9041118
0.0090222834
0.28374097
-2.0588658
0.53692597
-0.051766537
0.079254538
-1.6824937
0.070180535
-0.081850685
-0.32921433
-0.86865103
-0.55608034
-0.61656773
-0.47553498
-1.4733603
0.6783734
0.22163378
0.1207047
-0.4759315
-0.26361385
-0.57688516
-0.18072142
-0.17497252
-0.58343142
-0.3187311
-0.70775795
-0.36350164
-0.058476776
-0.1760706
-0.72915155
-0.044361666
-0.13091864
-0.17371976
-0.95616484
0.37443268
0.61944848
-0.32616109
1.024254
-0.65436047
-0.69571769
-0.45149109
2.6499977
-1.2596244
-1.7165492
-0.1896987
-1.7680732
-0.33233353
1.2433127
0.0046069128
-0.60488623
0.024580244
0.15622278
0.12341156
-0.66665775
0.86988217
-0.45872226
0.17038015
-0.53418911
0.85522729
-0.21405824
0.26976162
-0.63338
0.16063602
-0.080056295
0.24350516
-0.1144712
-0.39226797
-0.76120889
0.01417629
0.10362247
-0.49189419
-0.19317956
-0.12718308
-0.075990617
0.19202641
-0.53083611
-0.060657758
-0.30733484
-0.83572245
0.26230514
-0.60380507
-0.40390468
-0.66239667
0.26319489
-0.24246798
-0.56836396
-0.11804225
0.066632755
-0.38342276
-0.57093304
0.15381679
-0.25506982
-0.40017864
-0.52534688
0.399957
-0.38799718
-0.32870468
-0.29987973
0.92099023
-1.160538
-0.16795631
0.14276865
0.61243665
-1.9847866
-0.036708344
0.082662389
0.29664925
-1.3275913
-0.091749541
-0.82682407
-0.034643296
-0.092000179
0.0086271968
-0.49505985
0.62959069
-1.1223168
-0.08325664
-0.76197916
0.30180448
-0.33339077
-0.18662022
-0.62620282
0.53684515
-0.030449221
-0.1535428
-0.73006493
-0.20654333
0.92295003
-0.1814194
-0.90152252
-0.27688277
0.63365322
-0.20501861
-0.26862904
-0.36032119
-0.12642968
-0.27400807
0.17234813
-0.51407838
-0.0030689107
-0.41321528
-0.30120602
-0.069340162
-0.21149127
-1.077088
-0.13810816
-0.075100236
-0.17626342
-1.1698512
-0.50638461
-0.67200828
-0.25765052
-0.17501436
0.0866118
-0.50416154
-0.2828615
0.28402871
-0.19277583
0.23237742
-0.32143927
-0.56034464
-0.44251871
0.26530847
-0.64676535
-0.34205672
-0.31153491
-1.3270701
0.29360178
-0.28079486
0.38314342
-0.82631314
-0.66420484
-0.12496366
-1.5900785
-1.7883722
3.8855162
0.012097174
2.9856944
0.80200738
-5.4331174
0.037876531
0.1874847
1.619262
-2.8420169
-0.0018556775
-1.0319244
-0.24541844
1.2086548
-0.17906798
0.94819051
-0.68864703
0.33632228
-0.15741655
0.36383897
0.11241964
0.025501927
-0.31769803
-0.19198765
0.502873
0.11735564
-0.33338314
0.32004815
0.021024341
-0.47198141
-0.86709607
-1.8159443
-0.4628385
0.27219331
0.20771405
-0.093958557
0.18766415
-0.01286826
-0.18173462
-0.00091261347
0.32970902
-0.14030723
0.26018903
-0.17449628
-0.18621705
0.2140642
0.18186784
0.33106238
0.36169049
0.37266266
-0.20011041
0.50965762
-0.49296468
-0.11728267
0.12027992
0.018299067
1.2836937
-0.8875246
0.033631749
-1.0130326
2.888941
-0.58405876
-0.02000542
0.37446481
2.2672987
-0.93739581
-0.0088745877
0.88713127
1.3010293
0.29643083
-0.17300485
1.0338458
0.19019221
0.53962713
0.79840726
0.12790371
0.71899658
0.85928088
0.059228331
-0.068050303
0.052384578
-0.2990115
-0.041939046
-0.028290866
-0.050153233
-0.54444271
-0.040047221
-0.1475016
-0.36684772
-0.69787443
0.27524254
-0.60730368
-0.12214373
-0.50021297
-0.17287967
-1.9537909
3.0197525
-3.4534748
-0.51504463
-0.10847411
0.10391618
0.48464662
-0.54502171
0.29891187
-0.25804013
-0.11921602
-0.95353836
-0.41128504
0.14539094
-0.18662074
-1.0268679
-0.35014763
0.86749458
-0.852305
-0.96135068
0.47175273
0.55339617
-0.52419317
-0.88799626
-0.13224328
0.10630068
-1.0600677
-0.15895763
0.43580848
-0.70022929
-2.1503317
0.53878164
1.2989242
-1.4202299
-3.3112602
0.0027011326
1.4915242
-2.1964858
-1.9510391
0.54300523
-0.68423349
0.14749992
-0.98800409
-1.017154
-0.39405549
-0.56137496
-0.022287503
-0.30809176
-0.25571942
0.02613714
0.016417073
-0.12837121
0.15150969
0.39957535
-0.32393444
-0.063482307
0.23480332
-0.034359507
-0.37671545
0.36830404
-0.095847458
0.1096444
0.5069893
0.71943349
-1.3656907
1.4812621
0.35284063
0.33377776
0.36373949
-0.03829217
-0.54768229
-0.3997629
-0.051370218
-0.10138017
-0.24322425
-0.39686099
-0.41821072
-0.11234575
0.37972233
-0.36121732
-0.42619532
-0.18261777
0.61824149
-0.30383569
-0.30572534
0.23804498
0.41090536
-0.20775893
0.018989202
-0.12526792
-0.23135959
-0.13280073
0.32024267
0.2161417
-0.94447607
-0.19887646
-1.9470681
0.6739493
0.300506
0.014584701
-0.57570291
0.66999716
0.21517465
-0.14283055
0.017077336
0.86336374
-0.18995108
0.062294111
0.38563859
-0.11937945
-0.056929655
0.007843202
-0.035898376
-0.21724132
-0.20623519
-0.056584366
-0.14594734
-0.26996389
-0.19717857
0.033037249
0.048589367
-0.38926706
-0.18390854
0.20617472
-0.27463368
-0.2552138
0.14949381
0.34357414
-0.058089271
-0.40004492
0.31259343
-1.3070823
-0.23620687
-0.95329821
0.18383183
-0.14982627
-0.20145619
-0.64101917
-0.50207591
-0.41092676
-0.38569447
-0.59883475
-0.34300336
-0.22176832
-0.017792594
-0.27104965
-0.31799766
0.13471849
-0.4362129
-0.2171554
0.91654521
0.089061044
-0.46396673
-1.3250395
1.4944946
0.2473474
0.90584826
-1.6930343
-0.3627944
0.34857109
0.87538099
-2.2236369
0.032562304
-0.0083327163
-0.029497933
-1.8654268
0.87296855
0.24330612
1.0076307
-2.3993638
0.72899997
-0.042849522
0.68758053
-1.2230256
-0.16346073
0.011556695
-0.12159791
-0.18909332
-0.2826567
-0.094461493
-0.33688644
-0.10734927
-0.093449749
-0.38353652
-0.40182531
-0.16263641
-0.32967976
-0.38175544
-0.19135986
-0.38403097
-0.82005382
-0.19905041
-0.58489251
-0.99824131
0.22957999
0.1794778
-0.33815661
-0.19503872
0.090900429
-0.38594556
-0.13806844
-0.50329357
0.13735899
-0.10001637
-0.38003677
0.2319181
-0.15015347
-0.17740552
0.12680499
-0.2078266
-0.37076515
-0.12300142
0.0061853067
-0.43606883
-0.2295666
-0.1552881
-0.090362184
0.063836388
0.01043266
-0.17985664
-0.070576422
0.67986202
-1.061265
-0.033224508
-0.29453865
2.0628061
-1.8720697
-0.011421138
0.90408623
0.081493452
-1.1426866
0.35256067
0.55647773
-1.1491566
1.2577237
-0.2162765
0.6405797
-2.7837007
1.6607803
-0.31884691
-0.0051780064
-1.9730536
0.46783814
-0.36906326
-0.24692719
-1.1764629
0.4712131
-0.48625514
-0.26080725
-0.65194356
0.054459769
-0.44282371
-0.48198658
-0.43770018
-0.51162237
-0.2073708
-0.9495573
-0.74735737
-0.52729446
-0.68343079
-0.17528601
-0.13288572
0.25494573
-0.38616711
-0.20091651
-0.055452719
0.17530537
-0.33222121
-0.46178094
0.01210791
0.14059739
-0.27655733
0.083252631
-0.13808213
-0.24707074
-0.20526724
0.099567018
0.13512427
-0.53194815
-0.13573036
-0.30538327
0.063319482
-0.15058658
-0.048563428
-0.36570767
0.056048218
-0.084798552
-0.15312789
-1.5191336
0.6728285
-0.29298848
0.012913102
0.031986229
0.55799615
-0.3594875
-0.14449313
0.43449873
0.17002898
-0.42904651
0.14634505
-0.30485982
0.00044210098
0.31771272
-0.046530493
-0.34098813
-0.40214083
0.22221813
-0.097912669
-0.12066972
-0.66342902
0.16955547
-0.066754863
-0.21410225
-0.52205777
0.099260807
-0.019876136
-0.22547604
-0.33231172
-0.08173576
-0.05827482
-0.55617923
0.18235789
0.043259118
-0.14382108
-0.34325409
-0.97641027
-0.011755511
0.0039023929
0.0056425487
-0.1988187
-0.48914984
-0.10888003
-0.2222213
0.37238923
-0.51791054
-0.42652145
0.62567276
-0.55545896
-0.15315323
-0.36186311
0.058415983
-0.73050243
-0.35791859
-0.66011822
-3.3755617
1.5334662
0.11447073
-1.1526589
5.5516615
-3.0241373
-4.0205531
-0.015051462
2.7089787
-0.13409995
-4.0004339
-0.01469441
0.95156455
-1.5718677
-3.9041457
2.1566851
-2.0181694
-0.079341993
0.50447953
-1.139181
-0.59101921
-0.076137789
-0.56640357
-0.1906438
0.31168786
-0.68797004
-1.0136542
-0.030458925
-0.11967293
0.27412796
-1.1157218
-0.10753811
-0.021107666
-0.65116441
-0.59649527
-0.10609462
-0.23464595
-0.64245337
-0.64572334
0.024751315
-1.1366533
-0.80215615
-1.7584069
-0.56304151
0.46199334
0.57845545
-0.37016398
-0.69594091
0.62130678
0.060580291
-0.21746533
-0.40918863
-0.31596631
0.7932505
-0.050105128
-0.22265346
-0.030433901
0.38209277
-0.031333543
-0.18669488
-0.32394618
0.50165057
-0.70234311
-0.089484192
-1.2537729
1.6721514
-0.82178593
-0.10369439
-0.8428455
1.3255817
-0.52906662
-0.18566787
-0.81913853
0.73462945
-0.0048247343
0.0096700974
0.90080839
-0.38563994
-0.56025887
-0.12851228
0.064148024
-0.054214414
-0.3318716
0.058887437
0.10063785
-0.36783567
-0.18603113
-0.33393565
0.45077288
-0.95184523
-0.51229966
-0.54483604
0.014900764
-0.55279475
-0.5025003
-0.47425312
-0.47930822
-0.53899616
0.12260804
-0.54026848
-0.30304077
-0.7672196
0.55634159
-0.56367153
-0.95827198
-0.63216513
0.49803066
-0.03165159
-0.63394988
-0.66333508
-0.7486487
-0.35272396
-0.54158694
-1.1370116
-0.1379713
-0.24411605
-0.4729507
-0.51877862
-0.61176664
-0.29860854
-0.25996399
-0.04643707
-0.76424313
-0.089327
-0.58948857
1.2004876
-1.8149736
-0.0073154573
-0.87485939
3.2682531
-2.3012018
0.066965401
-0.85548013
2.920891
-1.3210361
0.43715951
3.3055782
-2.9455805
0.24142268
0.014349306
-0.97049719
-0.63357145
-0.087160192
0.40916255
-0.58032864
-1.4942365
0.055355337
-0.5662629
0.13095182
-0.42165217
-0.70886987
-0.42394188
0.20225777
0.32461649
-0.57408911
0.23304343
0.0050580949
-0.075532243
-0.2004535
0.059197344
-0.21187042
-0.44093245
0.50364703
0.16932431
-0.026024498
-0.26780167
-0.35510847
-0.62305677
-1.863917
0.47934374
-0.2781496
-0.45678478
0.03107403
-0.598158
0.080744155
-0.1093882
-0.49658075
0.030566355
0.11739414
-0.2020984
-0.64102465
0.24245593
-0.10176311
-0.20794909
-0.55702221
0.30885217
-0.02318907
-0.26423505
0.090203442
0.19771518
-0.3794435
-0.21504064
0.77838629
-0.38626006
-1.0565019
-0.10380364
0.50915802
-0.27603403
-0.6952309
-0.082397118
-1.0503613
-0.70043224
1.6139046
-0.013348902
0.04027126
-0.20225479
-0.10498799
-0.013382674
-0.40308917
-0.065553658
0.38008398
-0.026907805
-0.13251112
-0.10107093
0.39716515
-0.078275278
-0.12477717
-0.050467107
0.18205842
-0.14864102
-0.11892561
-0.12154035
-0.2194107
-0.085807458
-0.11458277
0.14416218
-0.44856855
-0.042200163
0.18651915
0.058328025
-0.50584108
-0.030552721
-0.37638485
-0.37493181
0.20235698
-0.49662405
-0.23779149
-0.43370751
-0.28040954
0.45885351
-0.28834525
-0.50254923
-0.07807871
0.33265266
-0.20234898
-0.54073226
-0.19216104
0.3946138
-0.059371158
-0.47683102
-0.26503089
0.33397782
-0.22330959
-0.23216347
-0.17647272
0.14445394
0.15094841
-0.57783109
-0.30450934
0.11013973
-0.054827832
-0.26190016
-0.41416639
0.2373731
0.22398575
0.09039437
-1.3013142
0.012253623
0.10074509
-0.3771891
-0.68174195
0.16610192
-0.62104577
0.13291664
-0.14364009
-0.1074167
-0.38355729
-0.14033076
0.027012141
-0.076256976
-0.19627142
-0.12634236
-0.26519144
-0.073155887
-0.43300617
-0.13542201
0.13726731
-0.041979127
0.22830682
-0.45801869
-0.26092196
-0.011707954
0.018888205
-0.66148716
0.32931903
-0.0019654045
-0.14161994
-0.16162106
-0.13729015
0.43636659
0.33973205
0.17043111
-0.23082742
0.26292107
0.037115138
0.62113374
0.29041302
0.36617061
0.64422071
0.76098603
0.27264291
0.22872837
0.30260816
0.70807308
0.55750906
0.40671784
0.46819875
0.49083528
-0.40818793
0.19903022
0.69458449
0.4442842
-0.40739512
-0.3117252
1.2820468
-0.32797959
-1.5513097
0.17476502
1.0681307
-0.75636476
-4.2113729
-0.003100299
-0.79986763
0.076887116
-0.17851716
0.11226641
0.11686981
0.56575876
-0.093265653
-0.0027251323
0.61741436
0.43992665
-0.023804279
0.26586848
0.31267801
0.19871095
0.32085067
0.22817312
0.39100972
0.1228753
0.25413701
0.70865822
0.64155793
0.071374208
-0.21416709
0.10491037
0.072554223
0.24579975
-0.033585351
-0.10733286
-0.13057402
1.876653
-1.8713816
0.97607356
0.22379816
0.42110187
-0.025174392
0.16078873
-0.25159037
-0.10477005
0.10414289
-0.084665023
-0.31087279
-0.37633297
-0.63484961
0.060113493
0.06533841
0.26690495
-0.21150318
0.15081477
-0.22020562
-0.21350697
0.47276825
0.17580253
0.1908989
0.30770755
0.22231215
-0.11901318
-2.0258939
-0.27915284
1.1964976
-0.13070139
-6.0080419
1.3696408
0.28399533
-0.00089720573
-1.7542274
-0.22518907
0.88546854
-0.091389894
0.97001064
-1.4152623
0.83847928
-0.049866758
0.12272964
0.16630052
0.44978711
-0.0261088
-0.18336125
-0.33443725
-0.45133927
-0.14349025
-0.21892282
-0.26970372
-0.18028712
-0.51397413
-0.19630022
0.034812324
-0.1405226
-0.12191739
-0.35404891
-0.043147091
-0.18539836
-0.19171111
-2.528573
-0.73326868
1.8976122
0.431898
0.021160012
-0.63203949
-0.050430153
-0.74920905
-0.20639297
0.13883646
-0.037187237
-0.20951335
-0.10490356
0.23591101
-0.041534849
-0.08862929
0.11152048
-0.0054633711
-0.51795846
0.3109847
-0.27744758
-0.07294111
-0.022400418
0.26220259
-0.064819023
-0.14276141
0.38080963
-0.16435952
-0.63719672
-0.38380769
-0.26200002
0.14683275
1.0167595
-3.6630962
1.4678839
0.014591543
-0.96259034
0.12406832
-0.29248995
0.13745266
-1.5019044
2.9011123
-2.7141192
-0.095443316
-0.058658306
1.6460418
-3.3538139
-0.11995487
0.3268781
0.43030265
-2.1134832
-0.050429005
-0.071929038
-0.12721784
-0.87994051
0.025696563
-0.53662539
0.52942431
-0.37699464
-0.29204488
0.52891248
-0.20842952
-0.68383038
-0.67364758
-2.0910699
1.8256048
-1.254571
-0.21518378
-0.10594442
0.084409788
-0.13541339
-0.029076166
0.016268928
-0.057317607
0.086318664
0.10644843
0.010902758
-0.25418434
0.21294481
0.19227953
0.10227755
-0.27303666
0.31685287
0.12746796
0.074677795
-0.34736255
0.68788886
0.014658044
-0.21513478
-0.50342405
0.19438142
-0.20670085
0.34168714
0.34749404
-2.1400211
0.36875293
1.163965
2.541647
-3.3736835
-0.0070462748
0.25212547
-0.42295298
-1.6898608
0.53220254
-0.34228802
-0.10269398
-0.20182946
-0.3402257
0.11248186
-0.37578961
-0.041786212
0.020303665
-0.31408417
0.028145514
0.11867343
-0.11492143
-0.031318568
0.12584217
-0.091236822
0.080956742
0.057867154
-0.016999448
0.046610344
0.21142668
-0.25255397
-0.075056389
0.27698845
0.062394202
-0.40456608
0.31759787
-1.6905137
-0.21068275
-0.09000323
-0.72232497
-0.4237808
0.17471012
-0.29743788
-0.87841588
-0.15465547
-0.028802961
-0.47859246
-0.72453129
0.064514317
-0.20236072
-1.2800139
-0.36861533
0.77548367
-0.18463019
-0.99556738
-0.089824356
0.92386812
-0.12541974
-1.4887228
0.35450795
0.21700191
-0.092695817
-1.1696434
0.77381307
-0.45344436
-0.090734281
-1.3307588
0.77829725
-0.34909216
-0.011111904
-0.2664803
0.13801681
-0.68233049
-0.10596573
-0.75926453
0.2272487
-0.032141469
-0.22363195
-0.39887443
-0.49729946
0.66754156
-0.30684924
-0.25173807
-0.57248783
0.54433775
-0.2971237
0.040526558
-0.25122911
-0.32442936
-0.36402145
0.12189679
-0.13172817
-0.37668809
-0.21282195
0.027413538
0.2680262
-0.57698607
-0.13313021
-0.086532786
0.30338734
-0.43351215
-0.37852961
0.042011317
-0.031966627
0.17402327
-0.28454545
-0.26299518
-0.21631654
-0.077504247
-0.19723301
0.011825131
-0.65199941
-0.2942487
0.11251595
0.0085773729
-0.71325547
-0.2635853
0.5372166
-0.5767197
-1.1089337
-0.37928471
0.61928374
-0.61537796
-1.3967761
-0.11722565
0.60903919
-5.1920128
-1.4876435
4.1745133
0.95164126
0.46441516
-0.34724116
-3.1518769
-0.0050764028
-0.58316118
-1.0683664
-0.63254809
0.36383745
-0.095682465
-0.80879164
0.72112882
0.21922067
0.18530703
0.23473389
0.17650032
-0.015502401
0.095964752
-0.012398966
0.13291004
0.31797618
0.090436272
0.10550121
-0.42888969
0.051867403
-0.19385445
0.21670526
-0.54073024
-0.63968641
-0.31841689
-0.36035866
0.29221505
-0.2967692
0.23964319
-1.7501575
0.62872273
0.30308187
-0.64998263
0.098592006
-0.16649193
-0.20726423
-0.32146049
0.089876369
-0.43439513
-0.27081767
-0.56543356
-0.34955826
0.18593627
-0.27257481
-0.6435883
-0.45879221
0.55105013
-0.49771723
-0.24255778
-0.18746783
-0.032036245
-0.47958219
0.096640363
-0.54613602
-0.68851864
-0.23540473
-0.30880204
-0.53974718
-0.19567478
-0.073528506
-1.272226
-1.1104221
1.9791983
0.011980967
-0.53604913
-0.37630406
0.51527005
0.081752397
-0.31904832
0.21786705
-0.43408233
0.19747631
0.43362159
0.14939469
-0.87933636
0.061471943
-0.34798926
0.85765851
-0.88532668
-0.04801029
-0.25956726
0.098775983
-0.4373486
-0.058862805
-0.12589453
-0.32713577
0.34103942
-0.079985037
-0.02969425
-0.51203227
0.69441485
-0.15518463
-1.1146276
-0.094773605
0.089198865
1.4206575
-0.048133504
-0.1365189
0.0080423737
-0.26379827
-0.12458186
0.059511524
-0.10627078
0.065622523
-0.33041415
-0.17233172
0.14073136
-0.14248665
0.01963727
-0.29055867
-0.4666889
0.21976012
0.2025205
-1.1119577
0.4694429
0.22532447
1.8070364
-3.7327197
1.7239456
0.4370468
0.73108292
-1.8061398
0.45811623
0.21613577
-1.3482474
2.8427033
-2.260828
0.0067830007
-1.1461867
0.91110116
-1.1464231
0.4531832
-0.81382477
1.0906365
-0.76251936
-0.19103913
0.91012073
-0.90075403
-0.051889185
0.045259956
0.086798944
-0.49542838
0.47535101
0.36352149
-0.048721571
-0.015991999
0.267685
0.039888687
0.020670129
0.085714206
-0.48865131
0.019423727
-0.20097578
0.30543011
-0.58590531
0.015864016
-0.57121056
0.17247717
-1.0626926
0.20432742
0.59187967
0.13954888
0.11482355
-0.04488983
0.20994081
0.12478694
0.066429488
0.48985896
-0.022688048
0.32272416
-0.049848452
0.15721968
-0.29253817
-0.1138394
-0.047929596
-0.23049594
-0.41320491
0.0063254861
-0.36528632
-0.38346356
-0.70049912
0.44206509
-0.69301492
-0.36341172
-1.1588403
0.80491853
0.13957867
-0.010789218
-1.6560004
1.1924921
1.2729135
0.013089044
-2.0110164
1.1290952
0.42348254
-0.06947539
0.0061402577
-0.32768932
-0.14910628
0.80642092
0.6125387
0.39840564
-0.21838062
0.25202283
0.13343298
0.13508946
0.13606189
-0.10858731
-0.0042472663
-0.181463
-0.050749738
0.40906718
0.036282428
-0.0040644836
-0.21777236
-0.14447001
-0.14074911
0.064751625
-0.58692646
-0.21464014
-0.28108808
4.0382147
-5.7936187
-1.5486941
-0.25528717
-0.087512873
-0.039020907
-0.26852182
0.080397882
-0.099838085
-0.40686396
-0.1225195
-0.25935736
0.42102608
-0.57854968
-0.15045504
-0.73102683
0.66095477
-0.54528809
-0.12794133
-1.1247946
0.71094334
-0.38016587
-0.071516581
-0.65359968
0.64149761
-0.25510052
-0.14164533
-0.45374441
0.19954303
-0.11647066
0.38704059
1.7528919
0.22238255
-1.18186
0.00044152478
-0.35895869
0.19018979
-0.46899828
0.31195304
0.11033577
-0.31749558
-0.50337988
-0.1623693
-0.3100194
-0.037113253
-0.2231314
-0.27806038
0.054291502
-0.22188312
-0.087805763
-0.22064467
-0.25881389
-0.035698682
-0.087532252
-0.11629407
0.13876124
-0.012166645
-0.47093675
-0.077060618
-0.48341766
0.41507989
-0.37366846
-0.29190624
-1.2143025
0.74320453
-0.85540348
-0.46540815
-0.10366273
-0.46039814
0.0078776646
0.013824807
-0.13680595
-0.21600974
-0.28994131
-0.17214531
-0.21781497
0.2189882
0.12697423
-0.34568334
-0.23064542
-0.14468142
-0.20490432
-0.22296222
-0.1276917
0.1754207
-0.42832249
-0.10983694
-0.43102083
-0.44576946
-0.28821018
0.48486573
0.36335838
-0.46341628
0.5586074
-0.057435654
0.35928756
-1.1877854
0.56199127
-0.008841617
-0.14429204
1.0312356
-0.24211359
-0.072378092
-2.4018407
3.0365546
-0.27348992
0.22650187
-0.98881745
1.3483185
-0.11660893
0.19480962
-0.0025518411
0.14270069
0.2505022
0.19016014
0.25675166
0.75374454
0.39822724
-0.072962686
0.46830046
0.70536023
0.40027261
0.0087830182
0.37444699
0.52347434
0.42330754
-0.13427146
0.085126437
1.525777
-3.0796466
-0.94078124
-0.52224499
0.20526838
-0.16287418
-0.17329361
-0.33975825
-0.42360431
-0.2092461
-0.22999102
0.065119505
-0.23217438
-0.14901407
-0.20746298
-0.067989327
-0.05136212
0.017923972
-0.18354335
0.68344653
-0.56505758
-0.2584106
-0.057379764
-0.36801541
-0.7531414
1.1615885
-0.32272333
-3.1944747
-1.2932826
5.0468054
0.017614573
2.7649965
0.96585107
-1.1463181
-0.010818777
0.24153662
0.20017643
-0.57452357
-0.17415373
-0.36820418
0.4568297
-0.59488302
-0.17255656
-0.10833809
-0.41425765
-0.088997029
-0.27495402
-0.19784394
-0.15303697
0.52927381
-0.47084749
-0.18658884
-0.053285208
0.16192287
0.10373662
0.59409386
-0.44741774
0.00076588208
0.25320983
0.13531448
-0.28886598
0.2821148
0.37296
-0.15123026
-1.6626219
1.3563796
-0.76743257
-0.051374126
-0.16410886
-0.21003687
-0.17608818
-0.052006889
-0.14169756
-0.23496585
-0.17041326
-0.12758537
-0.14448661
-0.20297962
-0.16470949
-0.14580986
-0.18060312
-0.097551838
-0.14264874
-0.021244876
-0.21903525
-0.099616915
-0.085952103
-0.072080821
-0.15939689
-0.19437657
-0.078702211
0.11342608
0.071420707
-0.43194544
-0.092652127
-0.69192642
0.57566613
-0.21220504
0.0052369917
0.0029203517
0.10808337
-0.37431183
-0.051765848
-0.2247697
0.08086057
-0.18766285
0.037108544
-0.10648216
-0.27100316
-0.0069807475
0.01935113
-0.11030224
-0.35878336
-0.0047262781
-0.036392491
-0.093630895
-0.3561565
-0.049038477
-0.029506659
-0.1735636
-0.35889211
0.0053675068
-0.029398046
-0.14415175
-0.23725715
-0.099150784
-0.055991087
-0.23951964
-0.25863367
-0.022652144
-0.6449517
-0.58096617
-1.0427337
-0.72363889
-0.59330052
-0.69386554
-0.40748718
-0.48725837
-0.6998167
-0.2291141
-0.33278459
-0.47073358
-0.43024659
-0.4538852
-0.37286663
-0.38288304
-0.64697504
-0.40823513
0.23014054
-0.75706458
-0.51759166
-0.4793272
-0.65641141
-0.68184972
0.064218044
3.7863631
-4.5491657
-3.0779707
0.75754166
4.1577296
-3.8877134
-6.228631
-0.00075540069
4.2829828
-4.4544702
-2.385644
-1.2837316
-0.54305506
-0.49359372
-0.93803692
-0.24072568
-0.45220515
-0.46237981
-0.55458695
-0.52020079
-0.74539739
-0.49181885
-0.24614392
-0.89196068
-0.47710016
-0.62792659
-0.7960304
-0.58444995
-0.74447131
-0.33420485
-0.74348283
-0.61001509
-0.51387054
-1.0488167
-0.58610749
-0.55943722
-2.3229339
-0.30720735
-0.12075798
-0.31675732
0.10636778
-0.30087966
0.15773267
-0.17185029
-0.3470279
-0.16977803
-0.19284727
-0.097213432
-0.21209376
-0.27750239
-0.40268201
0.035732981
-0.28720078
-0.53554922
-0.34951213
0.13593514
-0.72166884
-0.21901052
-0.21233647
-0.11591668
-0.24581592
-0.52774817
-0.60736465
-0.070988551
-0.043503784
-0.59228045
-0.6563071
0.090215608
0.77715015
-0.21636878
2.0133865
-0.013071643
-2.1102235
-1.2345546
4.0790958
0.25345781
0.46529081
-0.90712172
0.79916906
-0.18290271
0.26603103
0.56806833
-0.25434643
0.19136783
-0.0045369859
-0.45988423
-0.029475847
0.1565026
-0.47071669
-0.3804085
-0.14874531
-0.2728143
0.16592167
0.072607577
-0.49465761
-0.46330875
0.15151277
0.090249054
0.22292873
-0.029255161
0.0013519367
-2.3796959
1.9909582
-0.40236688
-0.12812902
-0.16273831
-0.21209776
0.035466976
0.00029274344
0.036599394
0.20118955
-0.2456928
0.048369441
-0.13607711
0.026742181
-0.33706433
-0.13304771
0.13830732
-0.26630139
-0.40630728
-0.38158697
0.25363177
-0.10474744
-0.56403482
0.16887039
-0.0025163258
-0.2927897
-0.1764985
-0.71346742
-0.32847193
-0.28603289
-0.083140627
-6.5961895
2.1402681
1.5161598
0.0078212358
-4.4635653
1.1531559
0.62435251
-0.057740632
-1.4889365
0.32042885
-0.55372304
-0.0012086808
-0.84475166
0.28869539
-0.81136054
-0.11209231
-0.26893145
-0.34174156
-0.88013083
0.38813362
-0.015259722
-0.021494992
-0.23101808
0.15247922
0.16216248
0.043222252
0.020381197
0.16649811
0.12324994
0.089566469
-0.15436958
-0.25372013
-0.35594165
-0.48387796
-1.3795015
-0.024040727
-0.17996292
-0.81678897
0.43961823
0.1010211
-0.3356466
0.02082373
-0.096628785
-0.14802125
-0.24767965
0.15658529
-0.34030512
-0.21841109
0.078677185
-0.16646571
-0.72883582
0.13913022
0.36749807
-0.028747723
-0.092218749
0.069063567
0.20717682
-0.34499976
0.48399016
0.39282304
-0.14934027
0.50296479
1.0014755
-0.21913326
-2.4101758
0.96168512
1.0300863
-0.0036705334
-0.90962678
1.6473289
-0.23738077
-0.17511655
-0.62954164
0.78594893
0.61354226
-0.020155886
-0.17965914
0.7645303
0.39979485
-0.22226675
-0.35863438
0.087591663
-0.14262101
-0.38408965
-0.34514898
0.058592178
-0.57207733
-0.52356768
-0.43428507
-0.030608904
-0.17969468
-0.23998912
0.26658776
-0.14052434
-0.68503886
-0.501894
-0.8575744
0.73698145
0.1511416
-1.1273508
-0.0091119399
0.35163292
-0.54362917
-0.37824094
-0.12807645
0.41918105
-0.23537415
-0.21086703
0.24267034
0.21643561
-0.014511544
0.067763649
0.44569054
0.23794024
0.29457098
0.0061146882
0.94269252
-0.31245282
-0.28875363
-0.0033748434
0.38161141
0.60737675
-1.184563
-0.24636786
0.24229616
1.529317
-1.7804842
-0.22759336
-2.4059398
3.0597537
1.0239928
-0.01088539
0.64157796
0.550044
-1.3693908
-0.15587792
0.26185521
0.13296606
-0.58814079
0.26916951
0.26670274
-0.17715648
-0.13930412
0.24702947
0.045680095
-0.24982485
-0.40947825
-0.0212672
-0.11750142
0.1585981
-0.60526383
-0.35492685
-0.23204702
0.19287206
0.19952282
-0.24290508
0.20843774
0.062405154
-0.52531821
-0.16288497
-0.66713548
-0.14350823
0.36136425
0.023334498
0.29782131
-0.30176315
-0.31398448
-0.093971312
-0.081987761
0.065434679
-0.097888902
-0.17517751
-0.2433677
-0.27840453
0.16321662
-0.14738612
0.89881319
-0.99509668
-0.28139573
0.045937236
0.40739551
-1.2842079
0.32777983
-0.072161265
-0.010591465
-1.3142765
0.29493469
-0.061444432
0.010255546
-0.56981277
-0.81290179
0.26362309
-0.25150639
0.21441232
-1.993996
-0.012509187
-0.26587769
-1.018154
-0.25176057
0.43071285
0.97700036
-0.80218226
-1.0131805
-0.24578124
0.67486882
-0.73997611
-0.35826084
-0.020384077
-0.47001249
-0.239511
-0.025709575
0.12004099
-0.64445508
-0.04571896
0.15986909
-0.063439824
-0.22438358
0.024810439
-0.35063332
-0.015651878
0.74286962
-0.30849522
-0.75679034
0.065353282
-0.45237926
1.3239478
-1.5549554
-0.5479793
0.4270381
-0.96011198
-0.80284679
0.1470408
-0.14468567
-0.74978155
-0.20631568
-0.14096826
0.13176881
-0.86460412
-0.3195239
-0.3916679
0.48853722
-0.50196391
-0.47716576
-0.6710856
0.67419165
-0.44856444
-0.41206771
-0.52359074
0.85143667
-0.48183411
-1.5485201
-0.27649695
1.55562
0.15484051
-2.5892966
-0.12861529
-1.2866948
-0.99031919
2.3605015
0.010214574
1.1005791
-0.18420167
-1.0388244
-0.11517412
0.039724492
0.64706665
-0.63717496
-0.2858068
-0.031406477
0.27582818
0.046196207
-0.17932965
-0.20795053
-0.006303546
0.22149423
-0.016452642
-0.032381289
-0.35333744
-0.58878577
-0.21518059
-0.12574811
-0.30655372
-0.002079217
-0.19282767
-0.41318139
-0.079155125
-0.23534323
-0.42057049
-0.58256584
-1.6398212
0.73560184
-1.1452246
-0.72187907
0.24594003
-0.26125604
-0.24813066
-0.023775464
-0.77750063
-0.50997514
0.12343204
-0.30941886
-0.70193398
0.37750015
0.162459
0.0055732541
-0.45816594
0.29992622
-0.031627059
-0.47782543
0.93951875
-0.6709851
0.076543026
-0.31036907
0.57615113
-0.86624616
-0.0039516003
0.62021756
0.0065948917
-0.75863016
-0.22775497
-0.77029848
0.43963253
0.76612121
-0.0023431832
3.0840094
-1.8662025
-1.2038467
-0.12363371
0.6747117
0.038778652
-0.92491299
0.10324679
0.22796503
0.086447664
-0.90297264
-0.014802365
-0.36817971
-0.1695013
-0.23099695
0.32285982
-0.4163911
0.12874013
-0.31566736
0.087847523
-0.23864627
-0.25964266
-0.034584906
0.11040704
0.19236185
-0.089816906
-0.83234853
0.21024801
-0.12609623
-1.5978788
0.64934498
-1.3931895
0.056571461
0.32228923
-1.0036689
0.25981
-0.1968326
0.21015526
-0.46321332
0.022997009
0.045523707
-0.20321353
-0.60744888
-0.034703411
0.5210042
-0.31138974
-0.77979511
0.14186379
-0.072216079
0.2012974
-0.39336959
-0.052468538
-0.26461554
0.018289417
-0.2903055
0.21988428
-0.53307158
-0.58491045
0.43367764
0.32421052
0.49240056
-1.0031698
-1.0428026
-0.0015460734
0.024539657
-0.048875187
-0.60777092
0.38079554
-0.19835691
0.39623874
-0.87609035
0.13735196
-0.77884352
0.1196214
0.39204553
-0.14744486
-0.14059307
-0.065645166
-0.037697516
-0.046824798
-0.22480674
-0.36941415
0.17330131
0.18076384
0.62488467
-0.44365254
-0.73916978
0.29491004
0.18139562
-0.42607138
-0.21901362
0.38212803
-0.5303883
0.90191197
-0.60520631
-0.15344098
-0.30900702
0.21367931
-0.38132378
-0.3822051
-0.21699595
-0.58928674
0.13312764
-0.080624901
-0.095557719
-1.0180753
-0.35717833
0.034614846
0.12916188
-3.1569915
0.96034753
0.24430101
1.3864938
-5.7114701
1.9156358
0.30436584
-0.55195677
0.47143576
-0.11095987
0.10379644
-1.0966455
1.8841661
-0.43586227
-0.063473381
-0.40910509
-0.080740772
-1.5557032
0.012901546
-0.12513001
1.1329347
0.54858667
0.049541682
0.5750528
-0.35679415
0.77431238
0.0095244506
0.030587794
-0.40682203
0.65091217
-0.054728467
-0.20035672
0.19867666
0.3850207
-0.357752
0.5009371
-0.025647908
-0.39690149
0.056283616
0.03425755
-0.23568894
-0.04107115
-0.2514675
-0.62689632
-0.073258236
-0.16686493
-0.14845628
-0.96491873
-2.8793867
1.8608
-0.1566681
-0.48643833
-0.039331526
0.13804868
-0.36872351
0.016911602
-0.0032651338
-0.25325891
-0.0087566497
0.36825773
-0.47004253
0.097812034
0.062329762
0.35136166
-0.92686409
1.1556764
-0.015425704
-0.47024179
1.1181505
-0.32440263
-0.35712665
-0.73116934
-0.22981553
-0.1006141
-0.22849691
-1.461666
-1.1549572
-1.1885294
0.92387867
3.2544253
-2.544734
-3.1182914
0.0017475549
-0.42063436
-0.51066667
-0.68770033
1.1082222
-0.32283828
0.35484055
0.96119517
-0.059429135
-0.8128311
1.0257627
0.49897176
0.20722704
-0.052709255
-0.39410755
0.087707803
0.2903451
0.55422133
0.21116687
-0.57603347
0.24374501
0.64013529
-0.41849875
0.70777643
0.11344349
0.064468324
0.76042175
0.37968168
-0.3466779
0.40912548
-2.2538834
0.80548149
-0.76178056
-0.024507575
0.049143132
-0.5096122
0.050664622
-0.077461258
0.081488878
0.11238743
-0.1266356
0.065368898
0.035680246
0.31325749
-0.091749303
0.36487541
0.17707686
0.17723159
0.43806708
-0.055800185
0.57839113
-0.23790915
0.011982457
0.40722108
-0.095372997
0.022918377
0.20126195
-0.26855335
-2.1527174
0.59408087
0.68770617
2.495203
-6.8590946
2.4122629
-0.014533839
0.22741941
-1.0978508
-0.14916627
0.78729695
0.085183851
0.04935234
0.15673307
0.084878027
-0.13610739
0.57045621
0.29498315
0.29979092
0.14980671
0.44051141
-0.14686261
0.1096362
0.11796886
-0.019491047
0.33181897
0.23206738
0.044307813
-0.13592163
-0.16839501
0.07196416
-0.21759398
-0.02953269
-0.17373428
-0.14042367
-1.3942678
-0.80964321
-0.35520005
0.077002756
0.5628587
-1.1247165
0.21256286
-0.040987663
0.60351986
-0.49706087
0.015159823
-0.070191659
-0.12043021
-0.52025813
0.12800595
-0.1537499
0.1064861
-0.7097314
0.35725999
-0.099206381
0.10414972
-1.4544659
0.39420789
-0.055653621
-0.3584761
-1.3268428
0.58786756
0.13130836
0.27707762
-1.6936901
0.35281727
0.12395854
-0.29044259
0.17759962
-1.506233
0.0046623289
-0.72079515
-0.1658769
-0.13514425
0.24728791
-0.2815339
0.45928645
-0.94141781
-0.015153854
-0.50404418
0.46078846
-0.37676376
-0.038773082
-0.0042848689
-0.15614095
-0.34238517
0.10072852
0.062355835
-0.21138094
-0.25553656
0.030718733
0.17122899
-0.30922267
-0.65591294
-0.0071832892
0.33443278
-0.18199772
-1.0647123
0.11616133
-0.080336042
0.12589638
-0.8554613
-0.26559487
-0.2124365
-0.13935567
-0.37045828
0.023987232
-0.36085314
-0.22396958
0.015803317
-0.18362886
-0.18165949
-0.45742911
0.068822041
-0.16434962
-0.12391938
-0.62487042
0.20270346
-0.23771255
0.073261298
-0.79072773
0.53348941
-0.20789738
0.15426031
-0.93729067
0.38424829
-0.13432223
0.17284468
0.018019043
-0.36736298
-0.05955103
-0.20651761
1.3977772
-2.9994798
-0.00054356235
0.26464549
0.089665875
-0.97124046
-0.14284341
-0.26867345
0.22961083
-0.40052828
-0.12381454
0.75730115
-0.6335907
0.15712982
-0.1242457
-0.26448545
-0.19780539
0.43191728
-0.19089471
-0.18991423
-0.08797238
0.23489332
-0.21531048
-0.35119233
-0.19384354
0.19336569
-0.056969099
-0.078632072
-0.57328779
0.21976249
0.07020314
0.11947119
-1.5134231
1.2344235
-0.63534254
2.4697828
-0.061877009
-21.2467
-0.63459843
2.3883924
1.378088
0.22295034
0.37730211
0.66074014
-0.026947644
-0.1418954
1.5950892
-1.3530335
-1.71496
-1.5411015
1.0040779
-1.8497719
-0.97316629
0.95416832
-0.52654272
1.2929993
-1.7967751
0.075159833
-9.0805702
-0.6037876
2.0441291
-0.0025085071
1.0862381
1.2040489
-4.9652901
1.5124829
-0.85159111
1.0906574
3.3274772
-1.0326983
-1.5107691
-0.99908644
-0.087263107
-1.1235127
-0.69527268
0.40277997
5.2283406
-1.0962631
-5.8264842
-0.85200346
-0.95703518
1.4380217
-0.93144953
-1.0308148
1.0285316
-2.3932543
2.4869685
0.2591401
0.47698572
1.7923943
-2.5610902
-2.0998602
-3.7234802
2.1420848
-2.3897538
-0.36473244
1.0309252
1.0356809
-2.9181368
0.81270707
1.4837323
0.22946824
-2.3887298
2.6877644
0.83019149
-1.422212
-1.5765626
1.3548367
-0.74103695
-0.42463031
-2.9835284
1.6316764
0.30885178
0.65610492
0.91455561
-2.1942668
-1.3445165
-0.72892314
1.6618984
-0.89106625
-2.2292235
-1.7928218
-2.1188381
-0.810018
-1.0516968
1.8475946
2.1806285
-1.342404
2.3462076
-1.3811228
-0.47159007
-0.20095058
-1.2409908
5.4955907
0.46148968
0.3730576
-0.610241
-1.0588177
1.0101706
0.47395182
5.8456316
-1.6831188
-5.5729141
1.4584177
0.30911732
0.53513825
3.0304029
-2.1223533
0.87599546
-2.0711341
-1.0094409
-3.821202
-1.1895489
2.016732
-3.7527778
-1.4327058
-0.41903937
0.55907279
-1.8572664
1.7049221
2.0766571
1.9856101
-1.5800158
-0.060698237
1.5919681
-0.5838306
-1.5405432
1.3936428
-2.4858613
-0.39320186
1.6731787
0.78038585
-0.29677618
-0.57843852
4.781198
1.8722074
-2.9554636
1.6332018
-2.4346128
1.3824474
-2.3201137
-5.4554167
-1.8907613
-2.5606105
1.37292
0.66468328
-0.43733206
1.4145088
-2.4973485
1.2432874
0.078218341
-1.5501242
1.9200988
1.1008291
-1.122434
-2.9298208
-1.4938569
-0.427524
-1.5109452
-0.29256615
-0.68847042
-1.6821445
-12.511428
-0.69519484
-1.5515282
-1.1167647
-2.9841115
-0.9702825
-0.36268443
-1.7131704
-0.79250687
-0.43755364
-0.78825921
-1.5292919
-0.86884475
-0.20044069
-2.2159271
-3.5274339
0.952344
0.019144973
-1.513839
-2.6045043
-0.38818425
-3.9353957
-1.4910982
-1.4810665
-0.38274062
-0.41357225
-0.51607674
-2.0008035
-1.364296
-1.8973254
0.14661211
-1.22359
-1.021643
-1.9388682
-2.4929204
-1.3428541
-2.166914
-0.06300059
-0.46176231
-3.1802206
-0.02837668
-2.5921359
-0.10224798
-0.67050916
-0.78750229
-1.4498252
-1.2464547
-0.18429619
-2.6309538
-1.7541229
-2.9596796
-0.97571003
-0.22568928
-0.55287778
-2.3312881
-0.3168827
